svm_type c_svc
kernel_type rbf
gamma 0.5
nr_class 4
total_sv 10
rho 0.0127355 0 0 0 1.76954 0.684304
label 0 1 3 4
nr_sv 2 3 1 4
SV
81.4957384662587 0 64.01587307643884 1:0.16666667 2:0.10760417 
0 23.41312887870461 0 1:0.12 2:0.2309375 
-74.60536258111654 0 0 1:0.32333333 2:0.094270833 
-6.890375885142147 16.4556076049685 44.41116130307623 1:0.32666667 2:0.15760417 
-0 0 95.69653829125119 1:0.48 2:0.12760417 
-23.41312887870461 -16.4556076049685 23.04444870154325 1:0.24 2:0.5009375 
-64.01587307643884 -100 -9.525674764197703 1:0.34333333 2:0.0909375 
-0 -37.17007115303659 -0 1:0.68333333 2:0.39760417 
-0 -0 -13.51877393734554 1:0.60333333 2:0.5309375 
-0 -2.93762844129081 -0 1:0.85333333 2:0.3209375 
